digraph Tree {
node [shape=box, style="filled, rounded", color="black", fontname=helvetica] ;
edge [fontname=helvetica] ;
0 [label="MarkDown3 <= -0.13\nmse = 40089604526632.0\nsamples = 69\nvalue = 47592927.25", fillcolor="#f9e4d5"] ;
1 [label="Weekly_Sales_Lag1 <= -0.65\nmse = 5092139947792.0\nsamples = 62\nvalue = 45695496.57", fillcolor="#fbeadf"] ;
0 -> 1 [labeldistance=2.5, labelangle=45, headlabel="True"] ;
2 [label="MarkDown4 <= -0.16\nmse = 4797620226834.75\nsamples = 10\nvalue = 42551406.15", fillcolor="#fdf5ef"] ;
1 -> 2 ;
3 [label="Size <= 1.05\nmse = 1098947615594.25\nsamples = 7\nvalue = 41568390.4", fillcolor="#fef8f5"] ;
2 -> 3 ;
4 [label="Weekly_Sales_Lag1 <= -0.71\nmse = 226951508947.25\nsamples = 5\nvalue = 42105255.64", fillcolor="#fdf7f2"] ;
3 -> 4 ;
5 [label="MarkDown3 <= -0.15\nmse = 86953894299.0\nsamples = 4\nvalue = 42318610.27", fillcolor="#fdf6f1"] ;
4 -> 5 ;
6 [label="Unemployment <= -0.37\nmse = 4689143507.0\nsamples = 3\nvalue = 42135739.27", fillcolor="#fdf6f2"] ;
5 -> 6 ;
7 [label="mse = 0.0\nsamples = 1\nvalue = 42080996.56", fillcolor="#fdf7f2"] ;
6 -> 7 ;
8 [label="year_week <= -0.49\nmse = 484991827.5\nsamples = 2\nvalue = 42217853.34", fillcolor="#fdf6f1"] ;
6 -> 8 ;
9 [label="mse = 0.0\nsamples = 1\nvalue = 42239875.87", fillcolor="#fdf6f1"] ;
8 -> 9 ;
10 [label="mse = -0.5\nsamples = 1\nvalue = 42195830.81", fillcolor="#fdf6f1"] ;
8 -> 10 ;
11 [label="mse = -0.5\nsamples = 1\nvalue = 42775787.77", fillcolor="#fdf4ee"] ;
5 -> 11 ;
12 [label="mse = -0.25\nsamples = 1\nvalue = 41358514.41", fillcolor="#fef9f6"] ;
4 -> 12 ;
13 [label="CPI <= -0.96\nmse = 256244497334.5\nsamples = 2\nvalue = 39957794.67", fillcolor="#fffefd"] ;
3 -> 13 ;
14 [label="mse = 0.0\nsamples = 1\nvalue = 40673678.04", fillcolor="#fefbf9"] ;
13 -> 14 ;
15 [label="mse = -0.75\nsamples = 1\nvalue = 39599852.99", fillcolor="#ffffff"] ;
13 -> 15 ;
16 [label="MarkDown5 <= -0.04\nmse = 265911022951.0\nsamples = 3\nvalue = 46483469.19", fillcolor="#fae8db"] ;
2 -> 16 ;
17 [label="mse = 0.0\nsamples = 1\nvalue = 47211688.36", fillcolor="#fae5d7"] ;
16 -> 17 ;
18 [label="Size <= 0.31\nmse = 1139164765.25\nsamples = 2\nvalue = 46119359.6", fillcolor="#fae9dc"] ;
16 -> 18 ;
19 [label="mse = 0.0\nsamples = 1\nvalue = 46085608.09", fillcolor="#fae9dd"] ;
18 -> 19 ;
20 [label="mse = -0.75\nsamples = 1\nvalue = 46153111.12", fillcolor="#fae9dc"] ;
18 -> 20 ;
21 [label="MarkDown4 <= -0.3\nmse = 2814146834312.0\nsamples = 52\nvalue = 46316040.73", fillcolor="#fae8db"] ;
1 -> 21 ;
22 [label="week_of_year <= 1.16\nmse = 2149238325298.0\nsamples = 23\nvalue = 45472082.14", fillcolor="#fbebe0"] ;
21 -> 22 ;
23 [label="IS_NEAR_EASTER <= 3.5\nmse = 1723961344422.25\nsamples = 20\nvalue = 45206961.4", fillcolor="#fbece1"] ;
22 -> 23 ;
24 [label="Weekly_Sales_Lag1 <= -0.19\nmse = 1353954155639.5\nsamples = 19\nvalue = 45087315.52", fillcolor="#fbede2"] ;
23 -> 24 ;
25 [label="MarkDown5 <= -0.15\nmse = 1191217021946.25\nsamples = 10\nvalue = 44391250.17", fillcolor="#fcefe6"] ;
24 -> 25 ;
26 [label="MarkDown2 <= -0.3\nmse = 305919720844.75\nsamples = 5\nvalue = 45129534.56", fillcolor="#fbece2"] ;
25 -> 26 ;
27 [label="Fuel_Price <= 1.21\nmse = 51195305938.0\nsamples = 3\nvalue = 45477198.44", fillcolor="#fbebe0"] ;
26 -> 27 ;
28 [label="MarkDown4 <= -0.54\nmse = 18883864754.75\nsamples = 2\nvalue = 45681534.86", fillcolor="#fbebdf"] ;
27 -> 28 ;
29 [label="mse = 0.0\nsamples = 1\nvalue = 45818953.44", fillcolor="#fbeade"] ;
28 -> 29 ;
30 [label="mse = 1.0\nsamples = 1\nvalue = 45544116.29", fillcolor="#fbebe0"] ;
28 -> 30 ;
31 [label="mse = -0.25\nsamples = 1\nvalue = 45272862.02", fillcolor="#fbece1"] ;
27 -> 31 ;
32 [label="Weekly_Sales_Lag4 <= -0.53\nmse = 90147513395.0\nsamples = 2\nvalue = 44434206.8", fillcolor="#fcefe5"] ;
26 -> 32 ;
33 [label="mse = 0.0\nsamples = 1\nvalue = 44133961.05", fillcolor="#fcf0e7"] ;
32 -> 33 ;
34 [label="mse = 0.0\nsamples = 1\nvalue = 44734452.56", fillcolor="#fbeee4"] ;
32 -> 34 ;
35 [label="Unemployment <= -0.99\nmse = 986386619863.0\nsamples = 5\nvalue = 43652965.77", fillcolor="#fcf1ea"] ;
25 -> 35 ;
36 [label="MarkDown2 <= 1.39\nmse = 80233460743.0\nsamples = 2\nvalue = 44554838.72", fillcolor="#fceee5"] ;
35 -> 36 ;
37 [label="mse = 0.0\nsamples = 1\nvalue = 44354547.11", fillcolor="#fcefe6"] ;
36 -> 37 ;
38 [label="mse = -0.5\nsamples = 1\nvalue = 44955421.95", fillcolor="#fbede3"] ;
36 -> 38 ;
39 [label="Fuel_Price <= -0.64\nmse = 265790125063.75\nsamples = 3\nvalue = 42751092.81", fillcolor="#fdf4ee"] ;
35 -> 39 ;
40 [label="Weekly_Sales_Lag4 <= -0.36\nmse = 1181535439.75\nsamples = 2\nvalue = 43115099.98", fillcolor="#fdf3ec"] ;
39 -> 40 ;
41 [label="mse = 0.0\nsamples = 1\nvalue = 43149473.45", fillcolor="#fdf3ec"] ;
40 -> 41 ;
42 [label="mse = -0.5\nsamples = 1\nvalue = 43080726.51", fillcolor="#fdf3ed"] ;
40 -> 42 ;
43 [label="mse = -0.25\nsamples = 1\nvalue = 42023078.48", fillcolor="#fdf7f2"] ;
39 -> 43 ;
44 [label="Temperature <= 0.36\nmse = 885407261233.75\nsamples = 9\nvalue = 45578655.77", fillcolor="#fbebdf"] ;
24 -> 44 ;
45 [label="Weekly_Sales_Lag1 <= 0.04\nmse = 310601706802.25\nsamples = 6\nvalue = 45103636.33", fillcolor="#fbece2"] ;
44 -> 45 ;
46 [label="Weekly_Sales_Lag4 <= -0.53\nmse = 120632109995.5\nsamples = 5\nvalue = 44898660.75", fillcolor="#fbede3"] ;
45 -> 46 ;
47 [label="mse = 0.0\nsamples = 1\nvalue = 44374820.3", fillcolor="#fcefe6"] ;
46 -> 47 ;
48 [label="Weekly_Sales_Lag4 <= -0.37\nmse = 4326186869.0\nsamples = 4\nvalue = 45123163.8", fillcolor="#fbece2"] ;
46 -> 48 ;
49 [label="MarkDown2 <= -0.06\nmse = 900566404.5\nsamples = 2\nvalue = 45159164.48", fillcolor="#fbece2"] ;
48 -> 49 ;
50 [label="mse = 0.0\nsamples = 1\nvalue = 45122410.57", fillcolor="#fbece2"] ;
49 -> 50 ;
51 [label="mse = -1.0\nsamples = 1\nvalue = 45183667.08", fillcolor="#fbece1"] ;
49 -> 51 ;
52 [label="Size <= -1.47\nmse = 1549813046.75\nsamples = 2\nvalue = 45033162.12", fillcolor="#fbede2"] ;
48 -> 52 ;
53 [label="mse = 0.0\nsamples = 1\nvalue = 44993794.45", fillcolor="#fbede2"] ;
52 -> 53 ;
54 [label="mse = 0.0\nsamples = 1\nvalue = 45072529.78", fillcolor="#fbede2"] ;
52 -> 54 ;
55 [label="mse = 1.0\nsamples = 1\nvalue = 46128514.25", fillcolor="#fae9dc"] ;
45 -> 55 ;
56 [label="MarkDown1 <= -0.06\nmse = 423689931329.5\nsamples = 3\nvalue = 46718702.41", fillcolor="#fae7d9"] ;
44 -> 56 ;
57 [label="MarkDown4 <= -0.34\nmse = 146075223298.25\nsamples = 2\nvalue = 46441741.34", fillcolor="#fae8db"] ;
56 -> 57 ;
58 [label="mse = 0.0\nsamples = 1\nvalue = 46823939.22", fillcolor="#fae7d9"] ;
57 -> 58 ;
59 [label="mse = -0.25\nsamples = 1\nvalue = 46059543.45", fillcolor="#fbe9dd"] ;
57 -> 59 ;
60 [label="mse = -0.5\nsamples = 1\nvalue = 47826546.72", fillcolor="#f9e3d3"] ;
56 -> 60 ;
61 [label="mse = 18.5\nsamples = 1\nvalue = 48676692.06", fillcolor="#f9e0cf"] ;
23 -> 61 ;
62 [label="Size <= -0.58\nmse = 1748761913140.75\nsamples = 3\nvalue = 47062806.59", fillcolor="#fae6d7"] ;
22 -> 62 ;
63 [label="mse = 0.0\nsamples = 1\nvalue = 48655544.3", fillcolor="#f9e0cf"] ;
62 -> 63 ;
64 [label="Size <= -0.08\nmse = 95921611640.5\nsamples = 2\nvalue = 46000981.45", fillcolor="#fbe9dd"] ;
62 -> 64 ;
65 [label="mse = 0.0\nsamples = 1\nvalue = 46438980.56", fillcolor="#fae8db"] ;
64 -> 65 ;
66 [label="mse = 0.0\nsamples = 1\nvalue = 45781981.89", fillcolor="#fbeade"] ;
64 -> 66 ;
67 [label="MarkDown3 <= -0.16\nmse = 2254667889701.5\nsamples = 29\nvalue = 47036493.18", fillcolor="#fae6d8"] ;
21 -> 67 ;
68 [label="Unemployment <= -0.17\nmse = 540708390567.75\nsamples = 6\nvalue = 45075221.91", fillcolor="#fbede2"] ;
67 -> 68 ;
69 [label="Weekly_Sales_Lag1 <= 0.27\nmse = 319224079051.0\nsamples = 2\nvalue = 46336505.76", fillcolor="#fae8db"] ;
68 -> 69 ;
70 [label="mse = 0.0\nsamples = 1\nvalue = 46901504.94", fillcolor="#fae6d8"] ;
69 -> 70 ;
71 [label="mse = 0.75\nsamples = 1\nvalue = 45771506.57", fillcolor="#fbeade"] ;
69 -> 71 ;
72 [label="MarkDown4 <= -0.09\nmse = 19600540201.75\nsamples = 4\nvalue = 44714855.09", fillcolor="#fbeee4"] ;
68 -> 72 ;
73 [label="year_week <= -0.86\nmse = 3401728053.25\nsamples = 2\nvalue = 44930650.3", fillcolor="#fbede3"] ;
72 -> 73 ;
74 [label="mse = 0.0\nsamples = 1\nvalue = 44988974.64", fillcolor="#fbede2"] ;
73 -> 74 ;
75 [label="mse = 0.0\nsamples = 1\nvalue = 44872325.97", fillcolor="#fbede3"] ;
73 -> 75 ;
76 [label="year_week <= -0.74\nmse = 2223854.25\nsamples = 2\nvalue = 44628537.01", fillcolor="#fceee4"] ;
72 -> 76 ;
77 [label="mse = 0.0\nsamples = 1\nvalue = 44630363.42", fillcolor="#fceee4"] ;
76 -> 77 ;
78 [label="mse = -0.25\nsamples = 1\nvalue = 44627319.4", fillcolor="#fceee4"] ;
76 -> 78 ;
79 [label="Temperature <= 1.33\nmse = 1350596075884.0\nsamples = 23\nvalue = 47588100.73", fillcolor="#f9e4d5"] ;
67 -> 79 ;
80 [label="Weekly_Sales_Lag4 <= -0.08\nmse = 946908014784.5\nsamples = 22\nvalue = 47469877.47", fillcolor="#fae4d5"] ;
79 -> 80 ;
81 [label="IS_SUPERBOWL <= 3.5\nmse = 669208814958.0\nsamples = 14\nvalue = 47116914.47", fillcolor="#fae6d7"] ;
80 -> 81 ;
82 [label="Fuel_Price <= -1.47\nmse = 269955036802.25\nsamples = 12\nvalue = 46953137.01", fillcolor="#fae6d8"] ;
81 -> 82 ;
83 [label="mse = 0.0\nsamples = 1\nvalue = 45909740.44", fillcolor="#fbeade"] ;
82 -> 83 ;
84 [label="Temperature <= -0.19\nmse = 158566690803.25\nsamples = 11\nvalue = 47075889.55", fillcolor="#fae6d7"] ;
82 -> 84 ;
85 [label="mse = 0.0\nsamples = 1\nvalue = 45887466.8", fillcolor="#fbeade"] ;
84 -> 85 ;
86 [label="MarkDown5 <= -0.33\nmse = 74688333051.0\nsamples = 10\nvalue = 47150165.97", fillcolor="#fae6d7"] ;
84 -> 86 ;
87 [label="Temperature <= 1.28\nmse = 27727583586.75\nsamples = 6\nvalue = 46968629.84", fillcolor="#fae6d8"] ;
86 -> 87 ;
88 [label="MarkDown5 <= -0.44\nmse = 4938497488.0\nsamples = 4\nvalue = 46858164.6", fillcolor="#fae7d9"] ;
87 -> 88 ;
89 [label="year_week <= -0.01\nmse = 647961262.25\nsamples = 3\nvalue = 46905633.13", fillcolor="#fae6d8"] ;
88 -> 89 ;
90 [label="mse = 0.0\nsamples = 1\nvalue = 46861958.29", fillcolor="#fae7d9"] ;
89 -> 90 ;
91 [label="MarkDown3 <= -0.15\nmse = 16174282.5\nsamples = 2\nvalue = 46920191.41", fillcolor="#fae6d8"] ;
89 -> 91 ;
92 [label="mse = 0.0\nsamples = 1\nvalue = 46917347.62", fillcolor="#fae6d8"] ;
91 -> 92 ;
93 [label="mse = 0.0\nsamples = 1\nvalue = 46925878.99", fillcolor="#fae6d8"] ;
91 -> 93 ;
94 [label="mse = 0.0\nsamples = 1\nvalue = 46763227.53", fillcolor="#fae7d9"] ;
88 -> 94 ;
95 [label="Weekly_Sales_Lag4 <= -0.29\nmse = 16151576120.5\nsamples = 2\nvalue = 47134327.7", fillcolor="#fae6d7"] ;
87 -> 95 ;
96 [label="mse = 0.25\nsamples = 1\nvalue = 47060952.92", fillcolor="#fae6d7"] ;
95 -> 96 ;
97 [label="mse = -1.25\nsamples = 1\nvalue = 47354452.05", fillcolor="#fae5d6"] ;
95 -> 97 ;
98 [label="Fuel_Price <= -1.36\nmse = 6487953691.75\nsamples = 4\nvalue = 47452726.18", fillcolor="#fae5d5"] ;
86 -> 98 ;
99 [label="mse = 0.0\nsamples = 1\nvalue = 47622046.23", fillcolor="#f9e4d5"] ;
98 -> 99 ;
100 [label="Fuel_Price <= -0.29\nmse = 904917796.75\nsamples = 3\nvalue = 47418862.18", fillcolor="#fae5d6"] ;
98 -> 100 ;
101 [label="mse = 0.0\nsamples = 1\nvalue = 47365290.44", fillcolor="#fae5d6"] ;
100 -> 101 ;
102 [label="Size <= 0.54\nmse = 234293840.75\nsamples = 2\nvalue = 47432255.11", fillcolor="#fae5d6"] ;
100 -> 102 ;
103 [label="mse = 0.0\nsamples = 1\nvalue = 47447561.77", fillcolor="#fae5d5"] ;
102 -> 103 ;
104 [label="mse = 0.75\nsamples = 1\nvalue = 47416948.45", fillcolor="#fae5d6"] ;
102 -> 104 ;
105 [label="Weekly_Sales_Lag1 <= -0.18\nmse = 1786519782816.0\nsamples = 2\nvalue = 48672800.36", fillcolor="#f9e0cf"] ;
81 -> 105 ;
106 [label="mse = 0.0\nsamples = 1\nvalue = 50009407.92", fillcolor="#f8dcc8"] ;
105 -> 106 ;
107 [label="mse = -0.5\nsamples = 1\nvalue = 47336192.79", fillcolor="#fae5d6"] ;
105 -> 107 ;
108 [label="MarkDown5 <= -0.5\nmse = 719041805966.5\nsamples = 8\nvalue = 48211099.76", fillcolor="#f9e2d1"] ;
80 -> 108 ;
109 [label="mse = 0.0\nsamples = 1\nvalue = 50188543.12", fillcolor="#f8dbc7"] ;
108 -> 109 ;
110 [label="Weekly_Sales_Lag4 <= 0.27\nmse = 316184445885.5\nsamples = 7\nvalue = 47991383.83", fillcolor="#f9e3d3"] ;
108 -> 110 ;
111 [label="Size <= -0.75\nmse = 39337387909.0\nsamples = 5\nvalue = 48275255.18", fillcolor="#f9e2d1"] ;
110 -> 111 ;
112 [label="mse = 0.0\nsamples = 1\nvalue = 47859263.78", fillcolor="#f9e3d3"] ;
111 -> 112 ;
113 [label="Fuel_Price <= -1.25\nmse = 12245232953.5\nsamples = 4\nvalue = 48344587.08", fillcolor="#f9e2d1"] ;
111 -> 113 ;
114 [label="mse = 0.0\nsamples = 1\nvalue = 48204999.12", fillcolor="#f9e2d1"] ;
113 -> 114 ;
115 [label="MarkDown4 <= -0.01\nmse = 3754250847.5\nsamples = 3\nvalue = 48414381.06", fillcolor="#f9e1d0"] ;
113 -> 115 ;
116 [label="Size <= -0.45\nmse = 1496095689.0\nsamples = 2\nvalue = 48384760.24", fillcolor="#f9e1d0"] ;
115 -> 116 ;
117 [label="mse = 0.0\nsamples = 1\nvalue = 48330059.31", fillcolor="#f9e2d1"] ;
116 -> 117 ;
118 [label="mse = 0.0\nsamples = 1\nvalue = 48412110.7", fillcolor="#f9e1d0"] ;
116 -> 118 ;
119 [label="mse = -1.0\nsamples = 1\nvalue = 48503243.52", fillcolor="#f9e1d0"] ;
115 -> 119 ;
120 [label="MarkDown3 <= -0.15\nmse = 15967813741.25\nsamples = 2\nvalue = 46997834.11", fillcolor="#fae6d8"] ;
110 -> 120 ;
121 [label="mse = 0.0\nsamples = 1\nvalue = 46871470.3", fillcolor="#fae7d9"] ;
120 -> 121 ;
122 [label="mse = 0.75\nsamples = 1\nvalue = 47124197.93", fillcolor="#fae6d7"] ;
120 -> 122 ;
123 [label="mse = -26.5\nsamples = 1\nvalue = 51253021.88", fillcolor="#f7d8c1"] ;
79 -> 123 ;
124 [label="MarkDown5 <= 0.12\nmse = 83458238020673.0\nsamples = 7\nvalue = 60874942.02", fillcolor="#f0b78e"] ;
0 -> 124 [labeldistance=2.5, labelangle=-45, headlabel="False"] ;
125 [label="MarkDown2 <= -0.3\nmse = 25981548319911.0\nsamples = 2\nvalue = 70755459.68", fillcolor="#e9965a"] ;
124 -> 125 ;
126 [label="mse = 0.0\nsamples = 1\nvalue = 76998241.31", fillcolor="#e58139"] ;
125 -> 126 ;
127 [label="mse = 1.0\nsamples = 1\nvalue = 66593605.26", fillcolor="#eca470"] ;
125 -> 127 ;
128 [label="week_of_year <= 1.5\nmse = 20231154960592.0\nsamples = 5\nvalue = 54699618.48", fillcolor="#f5ccaf"] ;
124 -> 128 ;
129 [label="Temperature <= -1.04\nmse = 59736129388.5\nsamples = 2\nvalue = 49563380.29", fillcolor="#f8ddca"] ;
128 -> 129 ;
130 [label="mse = 0.0\nsamples = 1\nvalue = 49909027.88", fillcolor="#f8dcc8"] ;
129 -> 130 ;
131 [label="mse = -1.0\nsamples = 1\nvalue = 49390556.49", fillcolor="#f8decb"] ;
129 -> 131 ;
132 [label="Size <= 0.23\nmse = 7008301216458.5\nsamples = 3\nvalue = 57781361.39", fillcolor="#f2c29f"] ;
128 -> 132 ;
133 [label="year_week <= -0.35\nmse = 752646394623.0\nsamples = 2\nvalue = 60953247.9", fillcolor="#f0b78e"] ;
132 -> 133 ;
134 [label="mse = 0.0\nsamples = 1\nvalue = 61820799.85", fillcolor="#f0b489"] ;
133 -> 134 ;
135 [label="mse = 0.5\nsamples = 1\nvalue = 60085695.94", fillcolor="#f1ba93"] ;
133 -> 135 ;
136 [label="mse = 0.0\nsamples = 1\nvalue = 55666770.39", fillcolor="#f4c9aa"] ;
132 -> 136 ;
}